svm_type c_svc
kernel_type rbf
gamma 4.0
nr_class 2
total_sv 144
rho -0.8353271047188794
label 1 0
nr_sv 78 66
SV
8.0 1:0.48 2:0.36363636363636365 3:0.4166666666666667 4:0.3333333333333333 5:0.375 6:0.5128205128205128 7:0.375 8:0.375 9:0.4605263157894737 10:0.375 
8.0 1:0.52 2:0.36363636363636365 3:0.3333333333333333 4:0.4444444444444444 5:0.40625 6:0.5641025641025641 7:0.40625 8:0.40625 9:0.4868421052631579 10:0.40625 
8.0 1:0.48 2:0.36363636363636365 3:0.3333333333333333 4:0.4444444444444444 5:0.375 6:0.5384615384615384 7:0.375 8:0.375 9:0.47368421052631576 10:0.375 
8.0 1:0.6 2:0.36363636363636365 3:0.3333333333333333 4:0.2222222222222222 5:0.40625 6:0.5641025641025641 7:0.40625 8:0.40625 9:0.5 10:0.40625 
8.0 1:0.48 2:0.36363636363636365 3:0.4166666666666667 4:0.4444444444444444 5:0.40625 6:0.5641025641025641 7:0.40625 8:0.40625 9:0.5 10:0.40625 
2.4858672924951994 1:0.6 2:0.36363636363636365 3:0.5833333333333334 4:0.4444444444444444 5:0.5625 6:0.6153846153846154 7:0.375 8:0.5625 9:0.631578947368421 10:0.5625 
8.0 1:0.64 2:0.36363636363636365 3:0.4166666666666667 4:0.4444444444444444 5:0.53125 6:0.6974358974358974 7:0.53125 8:0.53125 9:0.6052631578947368 10:0.46875 
8.0 1:0.48 2:0.36363636363636365 3:0.3333333333333333 4:0.4444444444444444 5:0.375 6:0.5384615384615384 7:0.375 8:0.375 9:0.47368421052631576 10:0.375 
8.0 1:0.48 2:0.36363636363636365 3:0.4166666666666667 4:0.4444444444444444 5:0.40625 6:0.5641025641025641 7:0.40625 8:0.40625 9:0.5 10:0.40625 
3.843700242021503 1:0.48 2:0.36363636363636365 3:0.5833333333333334 4:0.4444444444444444 5:0.46875 6:0.6153846153846154 7:0.375 8:0.46875 9:0.5526315789473685 10:0.46875 
7.777159411319443 1:0.64 2:0.36363636363636365 3:0.3333333333333333 4:0.4444444444444444 5:0.5 6:0.5641025641025641 7:0.5 8:0.5 9:0.5789473684210527 10:0.5 
6.673700249492007 1:0.6 2:0.36363636363636365 3:0.3333333333333333 4:0.7777777777777778 5:0.5625 6:0.6923076923076923 7:0.5625 8:0.5625 9:0.631578947368421 10:0.5625 
8.0 1:0.48 2:0.36363636363636365 3:0.3333333333333333 4:0.4444444444444444 5:0.375 6:0.5487179512820513 7:0.375 8:0.375 9:0.4473684210526316 10:0.375 
8.0 1:0.48 2:0.36363636363636365 3:0.5 4:0.3333333333333333 5:0.40625 6:0.5641025641025641 7:0.40625 8:0.40625 9:0.4868421052631579 10:0.40625 
2.7587755523364073 1:0.72 2:0.36363636363636365 3:0.3333333333333333 4:0.4444444444444444 5:0.5625 6:0.6923076923076923 7:0.5625 8:0.5625 9:0.631578947368421 10:0.5625 
0.8908873388379986 1:0.52 2:0.36363636363636365 3:0.3333333333333333 4:0.8888888888888888 5:0.53125 6:0.6410256410256411 7:0.53125 8:0.53125 9:0.6052631578947368 10:0.53125 
8.0 1:0.48 2:0.36363636363636365 3:0.3333333333333333 4:0.2222222222222222 5:0.3125 6:0.48717948717948717 7:0.3125 8:0.3125 9:0.39473684210526316 10:0.3125 
8.0 1:0.4 2:0.36363636363636365 3:0.3333333333333333 4:0.6666666666666666 5:0.375 6:0.5384615384615384 7:0.375 8:0.375 9:0.4473684210526316 10:0.375 
1.6415872368110784 1:0.48 2:0.6363636363636364 3:0.5833333333333334 4:0.3333333333333333 5:0.53125 6:0.6923076923076923 7:0.53125 8:0.453125 9:0.5789473684210527 10:0.53125 
8.0 1:0.52 2:0.36363636363636365 3:0.3333333333333333 4:0.4444444444444444 5:0.40625 6:0.48717948717948717 7:0.4375 8:0.40625 9:0.4868421052631579 10:0.40625 
8.0 1:0.48 2:0.36363636363636365 3:0.3333333333333333 4:0.4444444444444444 5:0.375 6:0.5384615384615384 7:0.375 8:0.375 9:0.47368421052631576 10:0.375 
2.592381611184557 1:0.68 2:0.36363636363636365 3:0.3333333333333333 4:0.5555555555555556 5:0.5625 6:0.6923076923076923 7:0.4375 8:0.46875 9:0.631578947368421 10:0.375 
8.0 1:0.48 2:0.36363636363636365 3:0.3333333333333333 4:0.4444444444444444 5:0.375 6:0.5384615384615384 7:0.375 8:0.375 9:0.47368421052631576 10:0.375 
3.3256789988134012 1:0.6 2:0.36363636363636365 3:0.3333333333333333 4:0.7777777777777778 5:0.5625 6:0.9230769230769231 7:0.46875 8:0.46875 9:0.5526315789473685 10:0.5625 
8.0 1:0.52 2:0.36363636363636365 3:0.3333333333333333 4:0.4444444444444444 5:0.40625 6:0.5641025641025641 7:0.375 8:0.40625 9:0.5 10:0.40625 
8.0 1:0.6 2:0.36363636363636365 3:0.4166666666666667 4:0.3333333333333333 5:0.46875 6:0.6153846153846154 7:0.46875 8:0.46875 9:0.4605263157894737 10:0.46875 
8.0 1:0.48 2:0.36363636363636365 3:0.3333333333333333 4:0.4444444444444444 5:0.375 6:0.5384615384615384 7:0.375 8:0.375 9:0.47368421052631576 10:0.375 
8.0 1:0.48 2:0.36363636363636365 3:0.3333333333333333 4:0.4444444444444444 5:0.375 6:0.5384615384615384 7:0.375 8:0.375 9:0.47368421052631576 10:0.375 
8.0 1:0.56 2:0.36363636363636365 3:0.3333333333333333 4:0.2222222222222222 5:0.375 6:0.5384615384615384 7:0.375 8:0.375 9:0.4342105263157895 10:0.375 
0.7624583628512329 1:0.84 2:0.36363636363636365 3:0.3333333333333333 4:0.2222222222222222 5:0.59375 6:0.6512820512820513 7:0.59375 8:0.59375 9:0.5394736842105263 10:0.59375 
8.0 1:0.48 2:0.36363636363636365 3:0.3333333333333333 4:0.3333333333333333 5:0.34375 6:0.5128205128205128 7:0.34375 8:0.34375 9:0.4342105263157895 10:0.40625 
8.0 1:0.48 2:0.7272727272727273 3:0.3333333333333333 4:0.4444444444444444 5:0.5 6:0.6410256410256411 7:0.5 8:0.5 9:0.5789473684210527 10:0.5 
8.0 1:0.52 2:0.36363636363636365 3:0.3333333333333333 4:0.4444444444444444 5:0.40625 6:0.5128205128205128 7:0.40625 8:0.40625 9:0.4868421052631579 10:0.40625 
7.088808583539753 1:0.56 2:0.18181818181818182 3:0.75 4:0.1111111111111111 5:0.4375 6:0.5641025641025641 7:0.4375 8:0.4375 9:0.4605263157894737 10:0.375 
2.080967432826861 1:0.6 2:0.36363636363636365 3:0.5 4:0.4444444444444444 5:0.53125 6:0.7230769307692307 7:0.53125 8:0.53125 9:0.6052631578947368 10:0.53125 
8.0 1:0.48 2:0.6363636363636364 3:0.3333333333333333 4:0.2222222222222222 5:0.40625 6:0.5641025641025641 7:0.40625 8:0.40625 9:0.5 10:0.40625 
8.0 1:0.48 2:0.36363636363636365 3:0.3333333333333333 4:0.4444444444444444 5:0.375 6:0.5384615384615384 7:0.375 8:0.375 9:0.47368421052631576 10:0.375 
8.0 1:0.48 2:0.36363636363636365 3:0.4166666666666667 4:0.4444444444444444 5:0.40625 6:0.6153846153846154 7:0.375 8:0.40625 9:0.4605263157894737 10:0.40625 
1.0848395043450687 1:0.48 2:0.36363636363636365 3:0.5833333333333334 4:0.7777777777777778 5:0.5625 6:0.6923076923076923 7:0.5625 8:0.5625 9:0.631578947368421 10:0.5625 
1.8673720936347835 1:0.68 2:0.36363636363636365 3:0.3333333333333333 4:0.8888888888888888 5:0.65625 6:0.8461538461538461 7:0.59375 8:0.65625 9:0.7105263157894737 10:0.40625 
1.3018032454441928 1:0.6 2:0.36363636363636365 3:0.8333333333333334 4:0.4444444444444444 5:0.65625 6:0.7230769307692307 7:0.46875 8:0.65625 9:0.7105263157894737 10:0.65625 
8.0 1:0.48 2:0.36363636363636365 3:0.5833333333333334 4:0.3333333333333333 5:0.4375 6:0.5897435897435898 7:0.4375 8:0.4375 9:0.5131578947368421 10:0.4375 
2.9193447147658684 1:0.52 3:0.3333333333333333 4:0.5555555555555556 5:0.3125 6:0.48717948717948717 7:0.3125 8:0.34375 9:0.3684210526315789 10:0.3125 
8.0 1:0.48 2:0.36363636363636365 3:0.3333333333333333 4:0.5555555555555556 5:0.40625 6:0.5641025641025641 7:0.40625 8:0.40625 9:0.4868421052631579 10:0.40625 
6.691865249117721 1:0.48 2:0.36363636363636365 3:0.75 4:0.4444444444444444 5:0.53125 6:0.6666666666666666 7:0.53125 8:0.53125 9:0.6052631578947368 10:0.53125 
5.766801336764923 1:0.4 2:0.36363636363636365 3:0.6666666666666666 4:0.4444444444444444 5:0.4375 6:0.47435897435897434 7:0.4375 8:0.4375 9:0.5 10:0.4375 
0.124979080412215 1:0.96 2:0.36363636363636365 3:1.0 4:0.4444444444444444 5:1.0 6:1.0 7:1.0 8:1.0 9:1.0 10:1.0 
8.0 1:0.48 2:0.36363636363636365 3:0.16666666666666666 4:0.3333333333333333 5:0.28125 6:0.46153846153846156 7:0.28125 8:0.28125 9:0.35526315789473684 10:0.28125 
8.0 1:0.44 2:0.36363636363636365 3:0.3333333333333333 4:0.4444444444444444 5:0.34375 6:0.5128205128205128 7:0.34375 8:0.34375 9:0.4342105263157895 10:0.34375 
8.0 1:0.52 2:0.36363636363636365 3:0.3333333333333333 4:0.4444444444444444 5:0.40625 6:0.5641025641025641 7:0.40625 8:0.40625 9:0.5 10:0.40625 
8.0 1:0.56 2:0.36363636363636365 3:0.3333333333333333 4:0.4444444444444444 5:0.4375 6:0.5128205128205128 7:0.46875 8:0.4375 9:0.5131578947368421 10:0.4375 
8.0 1:0.48 2:0.36363636363636365 3:0.3333333333333333 4:0.3333333333333333 5:0.34375 6:0.5128205128205128 7:0.34375 8:0.34375 9:0.4342105263157895 10:0.40625 
8.0 1:0.48 2:0.36363636363636365 3:0.4166666666666667 4:0.4444444444444444 5:0.40625 6:0.5641025641025641 7:0.40625 8:0.40625 9:0.5 10:0.40625 
0.8392368107466889 1:0.64 2:0.36363636363636365 3:0.4166666666666667 4:1.0 5:0.6875 6:0.8974358974358975 7:0.6875 8:0.6875 9:0.7368421052631579 10:0.6875 
8.0 1:0.52 2:0.36363636363636365 3:0.3333333333333333 4:0.4444444444444444 5:0.40625 6:0.5692307692307692 7:0.40625 8:0.40625 9:0.5 10:0.40625 
0.9085338533606476 1:0.6 2:0.36363636363636365 3:0.3333333333333333 4:0.3333333333333333 5:0.4375 6:0.5897435897435898 7:0.4375 8:0.4375 9:0.5131578947368421 10:0.5 
8.0 1:0.52 2:0.36363636363636365 3:0.3333333333333333 4:0.4444444444444444 5:0.40625 6:0.5641025641025641 7:0.40625 8:0.40625 9:0.5 10:0.40625 
1.7547097639383924 1:0.48 2:0.36363636363636365 3:0.8333333333333334 4:0.4444444444444444 5:0.5625 6:0.6923076923076923 7:0.5625 8:0.5625 9:0.631578947368421 10:0.5625 
1.751164221814491 1:0.6 2:0.36363636363636365 3:0.5833333333333334 4:0.4444444444444444 5:0.5625 6:0.6923076923076923 7:0.5625 8:0.5625 9:0.631578947368421 10:0.5625 
1.160121034424632 1:0.52 2:1.0 3:0.3333333333333333 4:0.4444444444444444 5:0.625 6:0.7512820512820513 7:0.625 8:0.625 9:0.6842105263157895 10:0.625 
8.0 1:0.48 2:0.36363636363636365 3:0.3333333333333333 4:0.3333333333333333 5:0.34375 6:0.5128205128205128 7:0.34375 8:0.34375 9:0.4342105263157895 10:0.40625 
3.2592026282846946 1:0.48 2:0.36363636363636365 3:0.3333333333333333 4:1.0 5:0.53125 6:0.5897435897435898 7:0.53125 8:0.53125 9:0.6052631578947368 10:0.53125 
8.0 1:0.72 2:0.36363636363636365 3:0.25 4:0.3333333333333333 5:0.5 6:0.6025641025641025 7:0.5 8:0.5 9:0.5394736842105263 10:0.5 
8.0 1:0.52 2:0.36363636363636365 3:0.3333333333333333 4:0.4444444444444444 5:0.40625 6:0.5641025641025641 7:0.40625 8:0.390625 9:0.5 10:0.40625 
1.113392271709337 1:0.64 2:0.36363636363636365 3:0.3333333333333333 4:1.0 5:0.65625 6:0.7435897435897436 7:0.65625 8:0.65625 9:0.631578947368421 10:0.65625 
8.0 1:0.48 2:0.36363636363636365 3:0.4166666666666667 4:0.4444444444444444 5:0.40625 6:0.5641025641025641 7:0.40625 8:0.40625 9:0.5 10:0.40625 
0.13832966766198865 1:0.72 2:0.36363636363636365 3:0.25 4:0.7777777777777778 5:0.625 6:0.8000000256410257 7:0.625 8:0.625 9:0.6710526315789473 10:0.625 
5.11554148472843 1:0.48 2:0.36363636363636365 3:0.5 4:0.4444444444444444 5:0.4375 6:0.5897435897435898 7:0.4375 8:0.4375 9:0.5263157894736842 10:0.4375 
6.575323189172084 1:0.76 2:0.36363636363636365 3:0.3333333333333333 4:0.4444444444444444 5:0.59375 6:0.6923076923076923 7:0.59375 8:0.484375 9:0.6578947368421053 10:0.59375 
4.221872967912189 1:0.56 2:0.36363636363636365 3:0.3333333333333333 4:0.4444444444444444 5:0.4375 6:0.5897435897435898 7:0.4375 8:0.4375 9:0.5263157894736842 10:0.4375 
8.0 1:0.48 2:0.36363636363636365 3:0.16666666666666666 4:0.5555555555555556 5:0.34375 6:0.48717948717948717 7:0.34375 8:0.34375 9:0.42105263157894735 10:0.34375 
0.20598248392104687 1:0.68 2:0.36363636363636365 3:0.3333333333333333 4:0.4444444444444444 5:0.53125 6:0.6666666666666666 7:0.53125 8:0.53125 9:0.6052631578947368 10:0.53125 
7.750123681196905 1:0.56 2:0.36363636363636365 3:0.3333333333333333 4:0.4444444444444444 5:0.4375 6:0.5897435897435898 7:0.4375 8:0.4375 9:0.5263157894736842 10:0.4375 
0.4181530342114187 1:0.48 2:0.36363636363636365 3:0.3333333333333333 4:0.5555555555555556 5:0.40625 6:0.5641025641025641 7:0.40625 8:0.40625 9:0.5 10:0.40625 
8.0 1:0.48 2:0.36363636363636365 3:0.25 4:0.4444444444444444 5:0.34375 6:0.5128205128205128 7:0.34375 8:0.34375 9:0.40789473684210525 10:0.34375 
8.0 1:0.52 2:0.36363636363636365 3:0.3333333333333333 4:0.4444444444444444 5:0.40625 6:0.5641025641025641 7:0.40625 8:0.40625 9:0.5 10:0.40625 
8.0 1:0.48 2:0.36363636363636365 3:0.3333333333333333 4:0.5555555555555556 5:0.40625 6:0.5641025641025641 7:0.4375 8:0.40625 9:0.4868421052631579 10:0.40625 
7.603019854915247 1:0.48 2:0.36363636363636365 3:0.3333333333333333 4:0.5555555555555556 5:0.40625 6:0.5641025641025641 7:0.40625 8:0.40625 9:0.5 10:0.40625 
-8.0 1:0.64 2:0.36363636363636365 3:0.3333333333333333 4:0.2222222222222222 5:0.4375 6:0.5025641 7:0.4375 8:0.4375 9:0.5 10:0.4375 
-8.0 1:0.48 2:0.36363636363636365 3:0.3333333333333333 4:0.4444444444444444 5:0.375 6:0.5384615384615384 7:0.375 8:0.375 9:0.47368421052631576 10:0.375 
-8.0 1:0.52 2:0.36363636363636365 3:0.3333333333333333 4:0.4444444444444444 5:0.40625 6:0.48717948717948717 7:0.40625 8:0.40625 9:0.39473684210526316 10:0.40625 
-8.0 1:0.48 2:0.36363636363636365 3:0.25 4:0.4444444444444444 5:0.34375 6:0.5128205128205128 7:0.34375 8:0.34375 9:0.39473684210526316 10:0.34375 
-8.0 1:0.44 2:0.36363636363636365 3:0.3333333333333333 4:0.4444444444444444 5:0.34375 6:0.5128205128205128 7:0.34375 8:0.34375 9:0.4342105263157895 10:0.34375 
-8.0 1:0.52 2:0.36363636363636365 3:0.5 4:0.4444444444444444 5:0.46875 6:0.5641025641025641 7:0.46875 8:0.46875 9:0.5526315789473685 10:0.46875 
-8.0 1:0.48 2:0.36363636363636365 3:0.5 4:0.4444444444444444 5:0.4375 6:0.5897435897435898 7:0.4375 8:0.4375 9:0.5263157894736842 10:0.4375 
-8.0 1:0.48 2:0.36363636363636365 3:0.5833333333333334 4:0.4444444444444444 5:0.46875 6:0.6153846153846154 7:0.46875 8:0.46875 9:0.5526315789473685 10:0.46875 
-8.0 1:0.48 2:0.36363636363636365 3:0.5833333333333334 4:0.2222222222222222 5:0.40625 6:0.5641025641025641 7:0.40625 8:0.40625 9:0.5 10:0.40625 
-8.0 1:0.52 2:0.36363636363636365 3:0.25 4:0.4444444444444444 5:0.375 6:0.46153846153846156 7:0.375 8:0.375 9:0.4342105263157895 10:0.375 
-2.8117376243093495 1:0.48 2:0.36363636363636365 3:0.3333333333333333 5:0.25 6:0.46153846153846156 7:0.25 8:0.25 9:0.3157894736842105 10:0.25 
-8.0 1:0.48 2:0.36363636363636365 3:0.8333333333333334 4:0.4444444444444444 5:0.5625 6:0.6923076923076923 7:0.46875 8:0.5625 9:0.631578947368421 10:0.5625 
-8.0 1:0.48 2:0.36363636363636365 3:0.5 4:0.4444444444444444 5:0.4375 6:0.5897435897435898 7:0.3125 8:0.4375 9:0.5 10:0.4375 
-8.0 1:0.48 2:0.36363636363636365 3:0.5833333333333334 4:0.2222222222222222 5:0.40625 6:0.5641025641025641 7:0.40625 8:0.40625 9:0.5 10:0.40625 
-8.0 1:0.48 2:0.36363636363636365 3:0.5 4:0.4444444444444444 5:0.4375 6:0.5897435897435898 7:0.4375 8:0.4375 9:0.5131578947368421 10:0.4375 
-8.0 1:0.6 2:0.36363636363636365 3:0.3333333333333333 4:0.4444444444444444 5:0.46875 6:0.6461538461538462 7:0.46875 8:0.46875 9:0.5526315789473685 10:0.46875 
-8.0 1:0.48 2:0.36363636363636365 3:0.3333333333333333 4:0.4444444444444444 5:0.375 6:0.5384615384615384 7:0.375 8:0.375 9:0.47368421052631576 10:0.375 
-8.0 1:0.6 2:0.36363636363636365 3:0.5 4:0.4444444444444444 5:0.53125 6:0.6666666666666666 7:0.53125 8:0.53125 9:0.6052631578947368 10:0.53125 
-8.0 1:0.48 2:0.36363636363636365 3:0.3333333333333333 4:0.4444444444444444 5:0.375 6:0.5384615384615384 7:0.375 8:0.375 9:0.47368421052631576 10:0.375 
-8.0 1:0.48 2:0.36363636363636365 3:0.3333333333333333 4:0.4444444444444444 5:0.375 6:0.5384615384615384 7:0.375 8:0.375 9:0.47368421052631576 10:0.375 
-0.25064162336129636 1:0.12 2:0.36363636363636365 3:0.3333333333333333 4:0.2222222222222222 5:0.03125 6:0.2564102564102564 7:0.03125 8:0.03125 9:0.039473684210526314 10:0.03125 
-8.0 1:0.48 2:0.36363636363636365 3:0.3333333333333333 4:0.4444444444444444 5:0.375 6:0.5384615384615384 7:0.375 8:0.375 9:0.47368421052631576 10:0.375 
-8.0 1:0.56 2:0.36363636363636365 3:0.3333333333333333 4:0.4444444444444444 5:0.4375 6:0.5897435897435898 7:0.4375 8:0.4375 9:0.4868421052631579 10:0.4375 
-8.0 1:0.44 2:0.36363636363636365 3:0.3333333333333333 4:0.4444444444444444 5:0.34375 6:0.5128205128205128 7:0.34375 8:0.34375 9:0.4342105263157895 10:0.34375 
-8.0 1:0.56 2:0.36363636363636365 3:0.3333333333333333 4:0.4444444444444444 5:0.4375 6:0.5897435897435898 7:0.4375 8:0.4375 9:0.5263157894736842 10:0.4375 
-8.0 1:0.52 2:0.36363636363636365 3:0.25 4:0.5555555555555556 5:0.40625 6:0.5641025641025641 7:0.40625 8:0.40625 9:0.42105263157894735 10:0.40625 
-8.0 1:0.44 2:0.36363636363636365 3:0.3333333333333333 4:0.4444444444444444 5:0.34375 6:0.5128205128205128 7:0.34375 8:0.34375 9:0.4342105263157895 10:0.34375 
-8.0 1:0.52 2:0.36363636363636365 3:0.3333333333333333 4:0.6666666666666666 5:0.46875 6:0.6256410256410256 7:0.46875 8:0.46875 9:0.5526315789473685 10:0.34375 
-8.0 1:0.6 2:0.36363636363636365 3:0.3333333333333333 4:0.4444444444444444 5:0.46875 6:0.6153846153846154 7:0.46875 8:0.421875 9:0.5526315789473685 10:0.46875 
-0.45507760825702137 1:0.48 2:0.36363636363636365 3:0.08333333333333333 4:0.2222222222222222 5:0.21875 6:0.41025641025641024 7:0.375 8:0.21875 9:0.27631578947368424 10:0.21875 
-8.0 1:0.52 2:0.36363636363636365 3:0.3333333333333333 4:0.4444444444444444 5:0.40625 6:0.5641025641025641 7:0.40625 8:0.40625 9:0.5 10:0.40625 
-8.0 1:0.48 2:0.36363636363636365 3:0.3333333333333333 4:0.4444444444444444 5:0.375 6:0.5384615384615384 7:0.375 8:0.375 9:0.47368421052631576 10:0.375 
-8.0 1:0.6 2:0.36363636363636365 3:0.3333333333333333 4:0.2222222222222222 5:0.40625 6:0.48717948717948717 7:0.40625 8:0.40625 9:0.5 10:0.40625 
-0.9637223964963968 1:0.52 2:0.36363636363636365 3:0.5 4:0.2222222222222222 5:0.40625 6:0.5897435897435898 7:0.40625 8:0.40625 9:0.40789473684210525 10:0.28125 
-8.0 1:0.52 2:0.36363636363636365 3:0.3333333333333333 4:0.4444444444444444 5:0.40625 6:0.5641025641025641 7:0.40625 8:0.40625 9:0.4868421052631579 10:0.40625 
-8.0 1:0.6 2:0.36363636363636365 3:0.3333333333333333 4:0.3333333333333333 5:0.4375 6:0.5512820512820513 7:0.4375 8:0.4375 9:0.5 10:0.4375 
-8.0 1:0.48 2:0.36363636363636365 3:0.3333333333333333 4:0.4444444444444444 5:0.375 6:0.5384615384615384 7:0.375 8:0.375 9:0.47368421052631576 10:0.375 
-8.0 1:0.48 2:0.6363636363636364 3:0.25 4:0.4444444444444444 5:0.4375 6:0.5897435897435898 7:0.46875 8:0.4375 9:0.5131578947368421 10:0.4375 
-1.1257140987975311 2:0.36363636363636365 3:0.3333333333333333 4:0.4444444444444444 6:0.23076923076923078 
-8.0 1:0.6 2:0.36363636363636365 3:0.3333333333333333 4:0.4444444444444444 5:0.46875 6:0.6153846153846154 7:0.46875 8:0.46875 9:0.5526315789473685 10:0.46875 
-8.0 1:0.48 2:0.36363636363636365 3:0.3333333333333333 4:0.4444444444444444 5:0.375 6:0.5384615384615384 7:0.375 8:0.375 9:0.47368421052631576 10:0.375 
-8.0 1:0.48 2:0.36363636363636365 3:0.3333333333333333 4:0.4444444444444444 5:0.375 6:0.5384615384615384 7:0.375 8:0.375 9:0.47368421052631576 10:0.375 
-8.0 1:0.44 2:0.36363636363636365 3:0.3333333333333333 4:0.4444444444444444 5:0.34375 6:0.5128205128205128 7:0.34375 8:0.34375 9:0.4342105263157895 10:0.34375 
-8.0 1:0.48 2:0.8181818181818182 3:0.3333333333333333 4:0.3333333333333333 5:0.5 6:0.6410256410256411 7:0.5 8:0.5 9:0.5657894736842105 10:0.5 
-8.0 1:0.48 2:0.36363636363636365 3:0.3333333333333333 4:0.4444444444444444 5:0.375 6:0.5384615384615384 7:0.375 8:0.375 9:0.47368421052631576 10:0.375 
-8.0 1:0.48 2:0.36363636363636365 3:0.3333333333333333 4:0.4444444444444444 5:0.375 6:0.5384615384615384 7:0.375 8:0.375 9:0.47368421052631576 10:0.375 
-8.0 1:0.6 2:0.36363636363636365 3:0.3333333333333333 4:0.4444444444444444 5:0.46875 6:0.6153846153846154 7:0.46875 8:0.46875 9:0.5526315789473685 10:0.46875 
-0.10201597844396838 2:0.36363636363636365 3:0.3333333333333333 4:0.4444444444444444 6:0.3333333333333333 
-8.0 1:0.44 2:0.36363636363636365 3:0.3333333333333333 4:0.4444444444444444 5:0.34375 6:0.5128205128205128 7:0.34375 8:0.34375 9:0.4342105263157895 10:0.34375 
-8.0 1:0.72 2:0.36363636363636365 3:0.3333333333333333 4:0.4444444444444444 5:0.5625 6:0.6923076923076923 7:0.5625 8:0.46875 9:0.631578947368421 10:0.5625 
-8.0 1:0.48 2:0.36363636363636365 3:0.3333333333333333 4:0.8888888888888888 5:0.5 6:0.6410256410256411 7:0.5 8:0.5 9:0.5789473684210527 10:0.5 
-8.0 1:0.6 2:0.36363636363636365 3:0.3333333333333333 4:0.8888888888888888 5:0.59375 6:0.8205128205128205 7:0.59375 8:0.59375 9:0.6578947368421053 10:0.59375 
-3.9203214979528602 1:0.6 2:0.18181818181818182 3:0.3333333333333333 4:0.2222222222222222 5:0.34375 6:0.48717948717948717 7:0.34375 8:0.34375 9:0.39473684210526316 10:0.34375 
-4.2605241000136775 1:0.48 2:0.36363636363636365 3:0.3333333333333333 4:0.3333333333333333 5:0.34375 6:0.5128205128205128 7:0.34375 8:0.359375 9:0.4342105263157895 10:0.34375 
-8.0 1:0.44 2:0.36363636363636365 3:0.3333333333333333 4:0.4444444444444444 5:0.34375 6:0.5128205128205128 7:0.34375 8:0.34375 9:0.4342105263157895 10:0.34375 
-8.0 1:0.6 2:0.36363636363636365 3:0.3333333333333333 4:0.2222222222222222 5:0.40625 6:0.48717948717948717 7:0.40625 8:0.40625 9:0.5 10:0.40625 
-8.0 1:0.48 2:0.36363636363636365 3:0.3333333333333333 4:0.3333333333333333 5:0.34375 6:0.5128205128205128 7:0.375 8:0.34375 9:0.4342105263157895 10:0.34375 
-8.0 1:0.44 2:0.36363636363636365 3:0.3333333333333333 4:0.4444444444444444 5:0.34375 6:0.5128205128205128 7:0.34375 8:0.34375 9:0.4342105263157895 10:0.34375 
-1.1401727555465555 1:0.4 2:0.36363636363636365 3:0.16666666666666666 4:0.6666666666666666 5:0.3125 6:0.46153846153846156 7:0.3125 8:0.34375 9:0.3684210526315789 10:0.3125 
-8.0 1:0.72 2:0.36363636363636365 3:0.3333333333333333 4:0.4444444444444444 5:0.5625 6:0.6923076923076923 7:0.5625 8:0.5625 9:0.631578947368421 10:0.5625 
-8.0 1:0.56 2:0.36363636363636365 3:0.3333333333333333 4:0.4444444444444444 5:0.4375 6:0.5897435897435898 7:0.4375 8:0.4375 9:0.5263157894736842 10:0.4375 
-8.0 1:0.48 2:0.36363636363636365 3:0.5833333333333334 4:0.2222222222222222 5:0.40625 6:0.5641025641025641 7:0.40625 8:0.40625 9:0.5 10:0.40625 
-8.0 1:0.44 2:0.36363636363636365 3:0.3333333333333333 4:0.4444444444444444 5:0.34375 6:0.5128205128205128 7:0.34375 8:0.34375 9:0.4342105263157895 10:0.34375 
-8.0 1:0.48 2:0.36363636363636365 3:0.5 4:0.5555555555555556 5:0.46875 6:0.6153846153846154 7:0.46875 8:0.46875 9:0.5526315789473685 10:0.46875 
-1.2332690603297256 1:0.48 2:0.36363636363636365 4:0.4444444444444444 5:0.25 6:0.4358974358974359 7:0.25 8:0.25 9:0.3157894736842105 10:0.25 
-0.23048774150402737 1:0.24 2:0.36363636363636365 3:0.16666666666666666 4:0.4444444444444444 5:0.125 7:0.125 8:0.25 9:0.15789473684210525 10:0.125 
