svm_type c_svc
kernel_type rbf
gamma 2.0
nr_class 2
total_sv 254
rho -0.6805710512606047
label 1 0
nr_sv 208 46
SV
0.3130553560937828 1:11.0 2:-1.0 3:0.0 4:3.0 5:0.0 6:2.0 
0.3188525978002614 1:30.0 2:4.0 3:0.0 4:6.0 5:0.0 6:10.0 
0.3129843108954906 1:13.0 2:4.0 3:0.0 4:0.0 5:0.0 6:4.0 
0.31969474056369995 1:11.0 2:3.0 3:-2.0 4:0.0 5:0.0 6:1.0 
0.31932530293974354 1:6.0 2:3.0 3:0.0 4:3.0 5:3.0 6:9.0 
0.3180034013897127 1:7.0 2:3.0 3:0.0 4:-1.0 5:0.0 6:2.0 
0.2855924432540949 1:18.0 2:3.0 3:0.0 4:0.0 5:0.0 6:3.0 
0.31946519557180825 1:29.0 2:6.0 3:0.0 4:0.0 5:0.0 6:6.0 
0.3194652923779406 1:11.0 2:7.0 3:0.0 4:3.0 5:0.0 6:10.0 
0.3193963470863523 1:15.0 2:0.0 3:3.0 4:0.0 5:2.0 6:5.0 
0.31887500872133356 1:21.0 2:-1.0 3:0.0 4:0.0 5:-2.0 6:-3.0 
0.3127510380459825 1:14.0 2:0.0 3:0.0 4:0.0 5:3.0 6:3.0 
0.31962595253259096 1:15.0 2:-1.0 3:0.0 4:-1.0 5:-1.0 6:-3.0 
0.31939645747820866 1:8.0 2:6.0 3:0.0 4:0.0 5:2.0 6:8.0 
0.37979458886918394 1:17.0 2:0.0 3:0.0 4:1.0 5:0.0 6:1.0 
0.31806468030775337 1:10.0 2:0.0 3:0.0 4:3.0 5:2.0 6:5.0 
0.3194534888567999 1:27.0 2:0.0 3:0.0 4:3.0 5:3.0 6:6.0 
0.3191789489453043 1:18.0 2:8.0 3:0.0 4:1.0 5:5.0 6:14.0 
0.31921223972813983 1:7.0 2:8.0 3:0.0 4:0.0 5:0.0 6:8.0 
0.31956101195040937 1:23.0 2:4.0 3:0.0 4:1.0 5:0.0 6:5.0 
0.3190954638403869 1:10.0 2:0.0 3:3.0 4:4.0 5:5.0 6:12.0 
0.3196054250227378 1:36.0 2:6.0 3:0.0 4:3.0 5:3.0 6:12.0 
0.3186197017736256 1:13.0 2:5.0 3:0.0 4:0.0 5:4.0 6:9.0 
0.31949143868634533 1:15.0 2:3.0 3:0.0 4:6.0 5:0.0 6:9.0 
0.30800011151018253 1:6.0 2:0.0 3:0.0 4:0.0 5:4.0 6:4.0 
0.28146027375257104 1:4.0 2:0.0 3:0.0 4:0.0 5:4.0 6:4.0 
0.34279469147198327 1:14.0 2:0.0 3:0.0 4:0.0 5:1.0 6:1.0 
0.308170939273765 1:5.0 2:0.0 3:0.0 4:3.0 5:1.0 6:4.0 
0.3196327394707493 1:6.0 2:0.0 3:3.0 4:0.0 5:3.0 6:6.0 
0.31961283945155183 1:14.0 2:5.0 3:0.0 4:0.0 5:2.0 6:7.0 
0.5459765659743135 1:5.0 2:0.0 3:0.0 4:3.0 5:0.0 6:3.0 
0.3122383237547587 1:11.0 2:0.0 3:0.0 4:3.0 5:-1.0 6:2.0 
0.3196726202437979 1:40.0 2:1.0 3:-4.0 4:0.0 5:1.0 6:-2.0 
0.31297794795425293 1:11.0 2:0.0 3:0.0 4:3.0 5:3.0 6:6.0 
0.3194766308810337 1:20.0 2:1.0 3:0.0 4:0.0 5:2.0 6:3.0 
0.301701416119878 1:6.0 2:0.0 3:0.0 4:1.0 5:1.0 6:2.0 
0.3125909579054379 1:5.0 2:-2.0 3:0.0 4:0.0 5:-1.0 6:-3.0 
0.31947727903847845 1:21.0 2:5.0 3:0.0 4:3.0 5:0.0 6:8.0 
0.28662097103539413 1:5.0 2:5.0 3:0.0 4:0.0 5:0.0 6:5.0 
0.31949520151884714 1:21.0 2:8.0 3:0.0 4:0.0 5:3.0 6:11.0 
0.319417245761926 1:13.0 2:7.0 3:0.0 4:7.0 5:0.0 6:14.0 
0.31942862872469896 1:40.0 2:3.0 3:0.0 4:0.0 5:4.0 6:7.0 
0.31955601982379844 1:31.0 2:7.0 3:0.0 4:5.0 5:4.0 6:16.0 
0.3138997757714776 1:11.0 2:0.0 3:0.0 4:-1.0 5:2.0 6:1.0 
0.30713478438354147 1:3.0 2:2.0 3:0.0 4:0.0 5:1.0 6:3.0 
0.3194607450800956 1:12.0 2:3.0 3:-2.0 4:0.0 5:-2.0 6:-1.0 
0.3194611406219956 1:17.0 2:6.0 3:0.0 4:0.0 5:4.0 6:10.0 
0.2426866137588898 1:5.0 2:0.0 3:0.0 4:0.0 5:3.0 6:3.0 
0.3196873917577199 1:16.0 2:6.0 3:0.0 4:3.0 5:-1.0 6:8.0 
0.33626139000149713 1:9.0 2:0.0 3:0.0 4:0.0 5:1.0 6:1.0 
0.3118136458410037 1:18.0 2:6.0 3:0.0 4:0.0 5:2.0 6:8.0 
0.31828742613511296 1:9.0 2:0.0 3:0.0 4:0.0 5:4.0 6:4.0 
0.31950308863687527 1:4.0 2:0.0 3:0.0 4:6.0 5:0.0 6:6.0 
0.24814502402598182 1:4.0 2:0.0 3:0.0 4:0.0 5:2.0 6:2.0 
0.3189453372860479 1:10.0 2:0.0 3:0.0 4:5.0 5:0.0 6:5.0 
0.23617452022807578 1:3.0 2:0.0 3:0.0 4:0.0 5:2.0 6:2.0 
0.31855926125419876 1:10.0 2:3.0 3:0.0 4:0.0 5:-2.0 6:1.0 
0.28121404099319874 1:10.0 2:3.0 3:0.0 4:0.0 5:0.0 6:3.0 
0.31962024121615074 1:9.0 2:0.0 3:3.0 4:3.0 5:0.0 6:6.0 
0.3132154926111877 1:11.0 2:0.0 3:0.0 4:4.0 5:2.0 6:6.0 
0.3184133236355826 1:14.0 2:5.0 3:0.0 4:0.0 5:5.0 6:10.0 
0.26413996976980453 1:10.0 2:5.0 3:0.0 4:0.0 5:0.0 6:5.0 
0.3166068463406023 1:13.0 2:0.0 3:0.0 4:0.0 5:2.0 6:2.0 
0.31939437913989194 1:17.0 2:0.0 3:0.0 4:4.0 5:2.0 6:6.0 
0.31921197886006814 1:7.0 2:2.0 3:0.0 4:0.0 5:4.0 6:6.0 
0.31253383135285717 1:5.0 2:0.0 3:0.0 4:-1.0 5:2.0 6:1.0 
0.319654354858532 1:15.0 2:-2.0 3:0.0 4:4.0 5:0.0 6:2.0 
0.3443269557015609 1:5.0 2:0.0 3:0.0 4:0.0 5:-1.0 6:-1.0 
0.3131254940838472 1:18.0 2:5.0 3:0.0 4:0.0 5:2.0 6:7.0 
0.30842590760933475 1:10.0 2:6.0 3:0.0 4:0.0 5:0.0 6:6.0 
0.31961299584535974 1:38.0 2:5.0 3:0.0 4:3.0 5:0.0 6:8.0 
0.31947072386469366 1:15.0 2:0.0 3:0.0 4:3.0 5:2.0 6:5.0 
0.31903005361514236 1:6.0 2:3.0 3:0.0 4:3.0 5:0.0 6:6.0 
0.3196085960596866 1:30.0 2:12.0 3:0.0 4:8.0 5:0.0 6:20.0 
0.3082380089254128 1:15.0 2:2.0 3:0.0 4:0.0 5:1.0 6:3.0 
0.2744192147701253 1:8.0 2:0.0 3:0.0 4:-2.0 5:-1.0 6:-3.0 
0.3383727219463936 1:7.0 2:-1.0 3:0.0 4:0.0 5:0.0 6:-1.0 
0.3194201739720454 1:18.0 2:0.0 3:0.0 4:0.0 5:2.0 6:2.0 
0.3136912979966206 1:13.0 2:3.0 3:0.0 4:0.0 5:0.0 6:3.0 
0.34879446348246174 1:8.0 2:1.0 3:0.0 4:0.0 5:0.0 6:1.0 
0.23200959537416982 1:5.0 2:2.0 3:0.0 4:0.0 5:0.0 6:2.0 
0.2856379565535801 1:2.0 2:2.0 3:0.0 4:0.0 5:0.0 6:2.0 
1.988056510525736 1:4.0 2:0.0 3:0.0 4:0.0 5:2.0 6:2.0 
0.30168250894079746 1:2.0 2:0.0 3:0.0 4:0.0 5:-1.0 6:-1.0 
0.3449321447697594 1:14.0 2:0.0 3:0.0 4:1.0 5:0.0 6:1.0 
0.3196239155930133 1:17.0 2:0.0 3:-2.0 4:3.0 5:0.0 6:1.0 
0.3194092708380204 1:18.0 2:4.0 3:0.0 4:1.0 5:5.0 6:10.0 
0.31375850939152816 1:2.0 2:5.0 3:0.0 4:0.0 5:0.0 6:5.0 
0.2794196812976958 1:11.0 2:0.0 3:0.0 4:0.0 5:2.0 6:2.0 
0.31319772549903324 1:13.0 2:5.0 3:3.0 4:0.0 5:0.0 6:8.0 
0.3443622629000903 1:5.0 2:-1.0 3:0.0 4:0.0 5:0.0 6:-1.0 
0.3169530093636379 1:12.0 2:0.0 3:0.0 4:0.0 5:3.0 6:3.0 
1.9933763252149832 1:10.0 2:3.0 3:0.0 4:0.0 5:0.0 6:3.0 
0.242803352480787 1:5.0 2:3.0 3:0.0 4:0.0 5:0.0 6:3.0 
0.28581748409249697 1:2.0 2:0.0 3:0.0 4:0.0 5:4.0 6:4.0 
0.23705487915722057 1:3.0 2:0.0 3:0.0 4:0.0 5:4.0 6:4.0 
0.28130660306952077 1:3.0 2:0.0 3:0.0 4:3.0 5:0.0 6:3.0 
2.0 1:13.0 2:1.0 3:0.0 4:0.0 5:0.0 6:1.0 
0.2692850084506362 1:15.0 2:3.0 3:0.0 4:0.0 5:0.0 6:3.0 
0.313827131977424 1:13.0 2:4.0 3:3.0 4:1.0 5:0.0 6:8.0 
0.312883956922492 1:9.0 2:3.0 3:0.0 4:0.0 5:-1.0 6:2.0 
0.3189178779382782 1:25.0 2:-2.0 3:0.0 4:-2.0 5:2.0 6:-2.0 
0.279892389489415 1:2.0 2:0.0 3:0.0 4:0.0 5:2.0 6:2.0 
0.2588480388471082 1:5.0 2:1.0 3:0.0 4:0.0 5:0.0 6:1.0 
0.24210409257254217 1:6.0 2:5.0 3:0.0 4:0.0 5:0.0 6:5.0 
0.31953585677074664 1:14.0 2:0.0 3:0.0 4:5.0 5:3.0 6:8.0 
0.3194634075685579 1:28.0 2:2.0 3:1.0 4:0.0 5:1.0 6:4.0 
0.31984594588472215 1:7.0 2:0.0 3:0.0 4:6.0 5:0.0 6:6.0 
0.22991564798036257 1:6.0 2:0.0 3:0.0 4:0.0 5:2.0 6:2.0 
0.3194157746618032 1:10.0 2:0.0 3:3.0 4:0.0 5:2.0 6:5.0 
0.27385262496978513 1:3.0 2:3.0 3:0.0 4:0.0 5:0.0 6:3.0 
0.2815227382186097 1:2.0 2:0.0 3:0.0 4:3.0 5:0.0 6:3.0 
0.3194410452783879 1:20.0 2:3.0 3:0.0 4:3.0 5:0.0 6:6.0 
0.31948038654822436 1:3.0 2:0.0 3:0.0 4:2.0 5:3.0 6:5.0 
0.31867433798336864 1:11.0 2:0.0 3:0.0 4:0.0 5:4.0 6:4.0 
0.318983790813766 1:20.0 2:1.0 3:7.0 4:0.0 5:0.0 6:8.0 
0.5560784255468671 1:15.0 2:0.0 3:0.0 4:0.0 5:-1.0 6:-1.0 
0.381661572250127 1:9.0 2:0.0 3:0.0 4:0.0 5:-1.0 6:-1.0 
0.31934944852393143 1:6.0 2:0.0 3:3.0 4:2.0 5:0.0 6:5.0 
0.3130262017665602 1:2.0 2:4.0 3:0.0 4:0.0 5:0.0 6:4.0 
0.24168867486397122 1:5.0 2:0.0 3:0.0 4:0.0 5:2.0 6:2.0 
0.31938399281090557 1:18.0 2:3.0 3:0.0 4:3.0 5:3.0 6:9.0 
0.3067179050035896 1:10.0 2:1.0 3:0.0 4:0.0 5:1.0 6:2.0 
0.3197352925626492 1:21.0 2:4.0 3:0.0 4:0.0 5:3.0 6:7.0 
0.2807126259102359 1:19.0 2:3.0 3:0.0 4:0.0 5:0.0 6:3.0 
0.23784981466636143 1:4.0 2:0.0 3:0.0 4:0.0 5:3.0 6:3.0 
0.30770261581385794 1:5.0 2:1.0 3:0.0 4:3.0 5:0.0 6:4.0 
0.3139007022159014 1:6.0 2:0.0 3:0.0 4:0.0 5:5.0 6:5.0 
0.3196239317814427 1:14.0 2:9.0 3:0.0 4:0.0 5:1.0 6:10.0 
0.31968739175771993 1:28.0 2:0.0 3:0.0 4:7.0 5:0.0 6:7.0 
0.3137875439432041 1:8.0 2:0.0 3:0.0 4:3.0 5:1.0 6:4.0 
0.28473613352761307 1:7.0 2:0.0 3:0.0 4:0.0 5:2.0 6:2.0 
0.31963251176534735 1:29.0 2:6.0 3:0.0 4:-1.0 5:-1.0 6:4.0 
0.5170641360018251 1:8.0 2:0.0 3:0.0 4:0.0 5:-2.0 6:-2.0 
0.3196130318887151 1:33.0 2:0.0 3:0.0 4:4.0 5:1.0 6:0.0 
0.3198501671674036 1:11.0 2:-4.0 3:0.0 4:0.0 5:0.0 6:-4.0 
0.30831951212565 1:8.0 2:0.0 3:0.0 4:-1.0 5:-2.0 6:-3.0 
0.2855582756289354 1:16.0 2:3.0 3:0.0 4:0.0 5:0.0 6:3.0 
0.3194653483103176 1:10.0 2:0.0 3:-2.0 4:0.0 5:-2.0 6:-4.0 
0.3131002626665755 1:5.0 2:-2.0 3:0.0 4:-1.0 5:0.0 6:-3.0 
0.31241864299337785 1:6.0 2:-4.0 3:0.0 4:0.0 5:0.0 6:-4.0 
0.3089524030896006 1:15.0 2:2.0 3:0.0 4:0.0 5:0.0 6:2.0 
0.3195458845658004 1:21.0 2:6.0 3:0.0 4:0.0 5:0.0 6:6.0 
0.3194653379034466 1:10.0 2:-4.0 3:0.0 4:-2.0 5:-1.0 6:-7.0 
0.2752039542656893 1:9.0 2:3.0 3:0.0 4:0.0 5:0.0 6:3.0 
0.30829364190278474 1:10.0 2:4.0 3:0.0 4:0.0 5:0.0 6:4.0 
0.3077142057455982 1:6.0 2:1.0 3:0.0 4:0.0 5:0.0 6:1.0 
0.2672550894321384 1:3.0 2:2.0 3:0.0 4:0.0 5:0.0 6:2.0 
0.3140817467145522 1:8.0 2:0.0 3:0.0 4:-3.0 5:-1.0 6:-4.0 
0.31882308469583004 1:12.0 2:0.0 3:0.0 4:3.0 5:-2.0 6:1.0 
0.29265807566168855 1:3.0 2:0.0 3:0.0 4:0.0 5:1.0 6:1.0 
2.0 1:4.0 2:0.0 3:0.0 4:0.0 5:-1.0 6:-1.0 
0.23108716352790706 1:10.0 2:0.0 3:0.0 4:0.0 5:2.0 6:2.0 
0.3121548518992571 1:7.0 2:0.0 3:0.0 4:-2.0 5:0.0 6:-2.0 
0.31886652379342 1:14.0 2:5.0 3:0.0 4:0.0 5:0.0 6:5.0 
0.28015816228207013 1:6.0 2:3.0 3:0.0 4:0.0 5:0.0 6:3.0 
0.3197117494619148 1:26.0 2:4.0 3:0.0 4:0.0 5:5.0 6:9.0 
0.2794954631806794 1:9.0 2:0.0 3:0.0 4:0.0 5:2.0 6:2.0 
0.3196446682967741 1:27.0 2:5.0 3:0.0 4:0.0 5:3.0 6:8.0 
0.31777072496089226 1:5.0 2:-4.0 3:0.0 4:1.0 5:0.0 6:-3.0 
0.31961462867168094 1:7.0 2:0.0 3:-2.0 4:3.0 5:0.0 6:1.0 
0.31972356807768343 1:10.0 2:5.0 3:0.0 4:3.0 5:2.0 6:10.0 
0.2416441428656153 1:9.0 2:0.0 3:0.0 4:-2.0 5:-1.0 6:-3.0 
0.318143373276434 1:10.0 2:0.0 3:0.0 4:3.0 5:0.0 6:3.0 
0.3076109774724324 1:10.0 2:5.0 3:0.0 4:0.0 5:1.0 6:6.0 
0.34281961673306016 1:9.0 2:0.0 3:0.0 4:1.0 5:0.0 6:1.0 
0.3182015032189375 1:16.0 2:0.0 3:0.0 4:0.0 5:-2.0 6:-2.0 
0.3125980484126464 1:17.0 2:6.0 3:0.0 4:-1.0 5:3.0 6:8.0 
0.3194770182123585 1:12.0 2:3.0 3:0.0 4:2.0 5:0.0 6:5.0 
0.31798352958888243 1:9.0 2:4.0 3:0.0 4:1.0 5:1.0 6:6.0 
0.34427028277075045 1:2.0 2:-1.0 3:0.0 4:0.0 5:0.0 6:-1.0 
0.28115267914550596 1:9.0 2:5.0 3:0.0 4:0.0 5:0.0 6:5.0 
0.3137235270430252 1:14.0 2:0.0 3:0.0 4:-1.0 5:4.0 6:3.0 
0.34504382510981724 1:6.0 2:0.0 3:0.0 4:2.0 5:0.0 6:2.0 
0.27396558228630574 1:6.0 2:2.0 3:0.0 4:0.0 5:0.0 6:2.0 
0.2865459203469486 1:10.0 2:0.0 3:0.0 4:-2.0 5:-1.0 6:-3.0 
0.3322664649878996 1:7.0 2:0.0 3:0.0 4:0.0 5:-1.0 6:-1.0 
0.3186544795245483 1:4.0 2:0.0 3:0.0 4:-3.0 5:0.0 6:-3.0 
0.319668838850066 1:19.0 2:7.0 3:0.0 4:0.0 5:0.0 6:7.0 
0.31715503054933947 1:8.0 2:0.0 3:0.0 4:0.0 5:3.0 6:3.0 
0.29482316207674025 1:4.0 2:1.0 3:0.0 4:0.0 5:1.0 6:2.0 
0.313715744638068 1:8.0 2:0.0 3:0.0 4:2.0 5:1.0 6:3.0 
0.2756107690390321 1:6.0 2:0.0 3:0.0 4:0.0 5:3.0 6:3.0 
0.31806719567695707 1:11.0 2:2.0 3:0.0 4:0.0 5:0.0 6:2.0 
0.31733222755908747 1:8.0 2:0.0 3:0.0 4:-2.0 5:1.0 6:-1.0 
0.2756764562863208 1:3.0 2:0.0 3:0.0 4:0.0 5:3.0 6:3.0 
0.30659095008725384 1:10.0 2:0.0 3:0.0 4:1.0 5:1.0 6:2.0 
0.2865095721082871 1:7.0 2:5.0 3:0.0 4:0.0 5:0.0 6:5.0 
0.31213250894306654 1:17.0 2:5.0 3:0.0 4:0.0 5:3.0 6:8.0 
0.24322124903770106 1:7.0 2:0.0 3:0.0 4:0.0 5:-2.0 6:-2.0 
0.31111914892675435 1:6.0 2:-3.0 3:0.0 4:0.0 5:0.0 6:-3.0 
0.31871446322116326 1:1.0 2:0.0 3:0.0 4:0.0 5:-2.0 6:-2.0 
0.31885864311308937 1:3.0 2:0.0 3:0.0 4:-4.0 5:0.0 6:-4.0 
0.2329879541384782 1:4.0 2:2.0 3:0.0 4:0.0 5:0.0 6:2.0 
0.32368220320790975 1:21.0 2:1.0 3:-2.0 4:3.0 5:0.0 6:2.0 
0.31959508304450734 1:17.0 2:-6.0 3:0.0 4:-2.0 5:0.0 6:-8.0 
0.29282101080655853 1:4.0 2:0.0 3:0.0 4:0.0 5:1.0 6:1.0 
0.30912302563082167 1:2.0 2:0.0 3:0.0 4:0.0 5:1.0 6:1.0 
0.3318838715672643 1:7.0 2:0.0 3:0.0 4:-1.0 5:0.0 6:-1.0 
0.5378770719677639 1:4.0 2:1.0 3:0.0 4:0.0 5:0.0 6:1.0 
0.31808308329956503 1:1.0 2:0.0 3:0.0 4:0.0 5:3.0 6:3.0 
0.30792138085520837 1:3.0 2:0.0 3:0.0 4:0.0 5:-1.0 6:-1.0 
0.3194704768833577 1:4.0 2:-5.0 3:0.0 4:0.0 5:0.0 6:-5.0 
0.3194068104619747 1:1.0 2:-3.0 3:0.0 4:0.0 5:0.0 6:-3.0 
0.2432871257203384 1:4.0 2:3.0 3:0.0 4:0.0 5:0.0 6:3.0 
0.31948244700913897 1:40.0 2:4.0 3:0.0 4:2.0 5:1.0 6:7.0 
0.31309642499769597 1:5.0 2:2.0 3:0.0 4:-1.0 5:1.0 6:2.0 
0.33222832196733626 1:6.0 2:0.0 3:0.0 4:0.0 5:1.0 6:1.0 
-1.762253053099991 1:6.0 2:0.0 3:0.0 4:3.0 5:0.0 6:3.0 
-2.0 1:4.0 2:0.0 3:0.0 4:0.0 5:2.0 6:2.0 
-2.0 1:13.0 2:1.0 3:0.0 4:0.0 5:0.0 6:1.0 
-1.6805356064237662 1:14.0 2:0.0 3:-2.0 4:3.0 5:0.0 6:1.0 
-1.6521090697597434 1:17.0 2:2.0 3:0.0 4:0.0 5:0.0 6:2.0 
-1.6805446067234038 1:23.0 2:0.0 3:0.0 4:0.0 5:-2.0 6:0.0 
-1.650979835824583 1:12.0 2:0.0 3:0.0 4:1.0 5:0.0 6:1.0 
-1.6805348674378149 1:14.0 2:0.0 3:0.0 4:3.0 5:0.0 6:3.0 
-1.4813522941485784 1:17.0 2:0.0 3:0.0 4:0.0 5:0.0 6:0.0 
-2.0 1:10.0 2:3.0 3:0.0 4:0.0 5:0.0 6:3.0 
-1.6273172001646743 1:17.0 2:1.0 3:0.0 4:0.0 5:0.0 6:1.0 
-1.6804389873909276 1:34.0 2:3.0 3:0.0 4:0.0 5:2.0 6:0.0 
-1.6801406648283934 1:15.0 2:0.0 3:-2.0 4:0.0 5:1.0 6:-1.0 
-1.3045437119324523 1:3.0 2:0.0 3:0.0 4:0.0 5:0.0 6:0.0 
-1.6816236010724772 1:20.0 2:0.0 3:-2.0 4:4.0 5:0.0 6:2.0 
-1.680441552144662 1:10.0 2:5.0 3:0.0 4:3.0 5:0.0 6:0.0 
-1.5164830449962154 1:14.0 2:0.0 3:0.0 4:0.0 5:0.0 6:0.0 
-1.7370963412052567 1:3.0 2:1.0 3:0.0 4:0.0 5:0.0 6:1.0 
-1.2970822181182249 1:11.0 2:0.0 3:0.0 4:0.0 5:0.0 6:0.0 
-1.555373276294315 1:15.0 2:0.0 3:0.0 4:0.0 5:-1.0 6:0.0 
-1.6805460270270611 1:22.0 2:0.0 3:-2.0 4:0.0 5:0.0 6:-2.0 
-1.681019294879406 1:14.0 2:0.0 3:0.0 4:9.0 5:0.0 6:9.0 
-0.004633966190185912 1:4.0 2:0.0 3:0.0 4:0.0 5:0.0 6:0.0 
-1.328941326303945 1:8.0 2:0.0 3:0.0 4:0.0 5:0.0 6:0.0 
-1.6501302616121885 1:4.0 2:3.0 3:0.0 4:0.0 5:0.0 6:0.0 
-1.5044611106779813 1:1.0 2:0.0 3:0.0 4:0.0 5:0.0 6:0.0 
-1.3252986630251204 1:10.0 2:0.0 3:0.0 4:0.0 5:0.0 6:0.0 
-1.656378807948105 1:5.0 2:2.0 3:0.0 4:0.0 5:0.0 6:0.0 
-1.1005169527417122 1:15.0 2:0.0 3:0.0 4:0.0 5:0.0 6:0.0 
-1.3006306847987879 1:16.0 2:0.0 3:0.0 4:0.0 5:0.0 6:0.0 
-1.6805521854496912 1:9.0 2:0.0 3:-2.0 4:0.0 5:0.0 6:-2.0 
-1.3146100904277533 1:2.0 2:0.0 3:0.0 4:0.0 5:0.0 6:0.0 
-1.333462322204204 1:6.0 2:0.0 3:0.0 4:0.0 5:0.0 6:0.0 
-2.0 1:4.0 2:0.0 3:0.0 4:0.0 5:-1.0 6:-1.0 
-1.6803782535976928 1:17.0 2:3.0 3:0.0 4:0.0 5:0.0 6:0.0 
-1.7584010791963056 1:9.0 2:0.0 3:0.0 4:0.0 5:-2.0 6:-2.0 
-1.338765021739385 1:5.0 2:0.0 3:0.0 4:0.0 5:0.0 6:0.0 
-1.6811345348132527 1:24.0 2:0.0 3:1.0 4:-1.0 5:0.0 6:0.0 
-1.3407525131667324 1:9.0 2:0.0 3:0.0 4:0.0 5:0.0 6:0.0 
-1.6809163640413176 1:11.0 2:3.0 3:0.0 4:0.0 5:0.0 6:0.0 
-1.3401278044764877 1:7.0 2:0.0 3:0.0 4:0.0 5:0.0 6:0.0 
-1.6808046018655294 1:14.0 2:-3.0 3:0.0 4:3.0 5:0.0 6:0.0 
-1.4737701290558711 1:12.0 2:0.0 3:0.0 4:0.0 5:0.0 6:0.0 
-1.6808211036979808 1:19.0 2:0.0 3:-2.0 4:0.0 5:0.0 6:0.0 
-1.3315830684359617 1:4.0 2:0.0 3:0.0 4:0.0 5:0.0 6:0.0 
-1.680357049120851 1:4.0 2:0.0 3:-2.0 4:0.0 5:0.0 6:-2.0 
